category,/Comics & Animation Fans,/Gamers,/Gamers/Action Game Fans,/Gamers/Adventure & Strategy Game Fans,/Gamers/Casual & Social Gamers,/Gamers/Driving & Racing Game Fans,/Gamers/Hardcore Gamers,/Gamers/Roleplaying Game Fans,/Gamers/Shooter Game Fans,/Gamers/Sports Game Fans,/Green Living Enthusiasts,/Movie Lovers,/Movie Lovers/Action & Adventure Movie Fans,/Movie Lovers/Comedy Movie Fans,/Movie Lovers/Family Movie Fans,/Movie Lovers/Horror Movie Fans,/Movie Lovers/Romance & Drama Movie Fans,/Movie Lovers/Sci-Fi & Fantasy Movie Fans,/Movie Lovers/South Asian Film Fans,/Music Lovers,/Music Lovers/Blues Fans,/Music Lovers/Classical Music Enthusiasts,/Music Lovers/Country Music Fans,/Music Lovers/Electronica & Dance Music Fans,/Music Lovers/Folk & Traditional Music Enthusiasts,/Music Lovers/Indie & Alternative Rock Fans,/Music Lovers/Jazz Enthusiasts,/Music Lovers/Metalheads,/Music Lovers/Pop Music Fans,/Music Lovers/Rap & Hip Hop Fans,/Music Lovers/Rock Music Fans,/Music Lovers/Spanish-Language Music Fans,/Music Lovers/World Music Fans,/Nightlife Enthusiasts,/Outdoor Enthusiasts,/TV Lovers,/TV Lovers/Documentary & Nonfiction TV Fans,/TV Lovers/Family Television Fans,"/TV Lovers/Game, Reality & Talk Show Fans",/TV Lovers/Sci-Fi & Fantasy TV Fans,/TV Lovers/TV Comedy Fans,/TV Lovers/TV Drama Fans,/Technophiles,/Thrill Seekers
/Entertainment,0.463895523527,0.217663915594,0.261901442203,0.297194028439,0.241740559648,0.251031651456,0.260816052791,0.277187537203,0.26868833029,0.32199631382,0.186037932631,0.305711201096,0.399502146247,0.392858811477,0.322665989776,0.367435478444,0.366560296634,0.438263884717,0.362765382524,0.373845879847,0.34700245929,0.372084581538,0.394515828369,0.417977316463,0.35406336566,0.410643226894,0.356870729406,0.365127369924,0.424863147615,0.374333709857,0.408902545203,0.364515910984,0.399569902679,0.313294356328,0.259004769173,0.361150054352,0.417071380953,0.401071718836,0.405385994042,0.484645019633,0.438852054866,0.430766316659,0.0465005612402,0.278299392798
/Entertainment/Games,0.537254267259,0.374319218776,0.573382061578,0.584226284316,0.295565294561,0.55520412606,0.387371323016,0.575498996526,0.604408957754,0.654914078631,0.124405809056,0.259313219595,0.430736823472,0.375447984894,0.310978836713,0.374347153912,0.33938643905,0.444685040079,0.42157391281,0.312805380869,0.397012383269,0.325791767695,0.411592867482,0.406508408171,0.282992631645,0.362655090205,0.319921916474,0.315607791214,0.405085896421,0.360465648564,0.389054149857,0.350382265396,0.438128092329,0.271329667588,0.292350853515,0.273099009969,0.359507070706,0.344675655591,0.528519583017,0.462651069366,0.387960753113,0.384300177018,0.0534195719627,0.179902448465
/Entertainment/Games/Action games,0.502923495804,0.394166720429,0.693388534992,0.644514184285,0.30644768627,0.591654077071,0.401254248544,0.611726211296,0.65481529868,0.6754847302,0.0721245568591,0.220105704624,0.470629507334,0.334351411754,0.276095489574,0.344784079,0.307728101745,0.408169919205,0.389851276999,0.222450269045,0.330317406514,0.242544156649,0.336817849183,0.325514979804,0.198957650644,0.291793775611,0.23761119774,0.231057303475,0.316616154399,0.302828982016,0.304916060983,0.292001403854,0.372450222855,0.217362626344,0.253381778284,0.198116892263,0.289019086123,0.274256609122,0.509668899095,0.400314289574,0.317471837423,0.321045262396,0.0343577421486,0.126399506323
/Entertainment/Games/Board games,0.433172282753,0.339249273038,0.561600281215,0.567815698251,0.254054816211,0.529144239798,0.328213881042,0.55456136416,0.585306926517,0.6431383617,0.0723265191087,0.119886594503,0.309129868965,0.23193286093,0.194371157191,0.240817948638,0.19398810358,0.305501097089,0.332510765473,0.183556500236,0.286357910557,0.21538789003,0.303043568909,0.279457821927,0.170763331626,0.234679340559,0.206478129917,0.182509306453,0.27807878646,0.236933976586,0.2614401869,0.243747945247,0.332978715872,0.187650153196,0.267982558016,0.139622041077,0.229695513399,0.238777600449,0.426813084944,0.326705194082,0.250150467821,0.249798318405,0.00876853886699,0.0989116180431
/Entertainment/Games/Browser games,0.513292915376,0.430969662999,0.637176020393,0.647958142322,0.342198221496,0.60298744442,0.42361764571,0.641002111077,0.66891475431,0.691199511055,0.084454040746,0.215299403172,0.403321795988,0.324742380418,0.28223531364,0.334869372108,0.284154706421,0.405241771209,0.372218057529,0.237029863798,0.34724308062,0.266907501947,0.362210605041,0.345389159722,0.221443342148,0.309091446654,0.256253504856,0.243025246907,0.34131417515,0.314775629754,0.326075629325,0.31968968131,0.392296272211,0.228506225425,0.257642074113,0.188641715597,0.276459639093,0.270383359932,0.522985806645,0.394069362654,0.303917253521,0.297073409655,0.064371355753,0.120413817428
/Entertainment/Games/Card games,0.502169916639,0.39729713402,0.633585515275,0.640919548731,0.307295396381,0.605792312581,0.398628476685,0.633450787512,0.667355814086,0.69423706493,0.0781996168767,0.200108339939,0.394673107128,0.321291282741,0.266453334788,0.32835060608,0.281055664424,0.391888765299,0.374559043006,0.216000739957,0.338928673818,0.233664844042,0.342872675356,0.327079817366,0.191420145979,0.282544426116,0.229410873337,0.222652857625,0.321837817324,0.296452564325,0.3061670511,0.289127966461,0.377908401599,0.20011043318,0.253661848508,0.188711392915,0.282198703751,0.269375826916,0.517286186445,0.391594826789,0.313464031022,0.307195749245,0.0385056216423,0.126638108864
/Entertainment/Games/Casino games,0.468148861103,0.349160075692,0.576463808494,0.586413952171,0.255021640569,0.577494169307,0.358650282361,0.573895376594,0.612311053976,0.66219534252,0.109022138583,0.227953599781,0.397328410802,0.332512009389,0.281355304165,0.339377703536,0.292492920077,0.397978546996,0.396256020143,0.247006399259,0.362940096908,0.25678369718,0.354869346484,0.344246085055,0.215227084231,0.303902960688,0.270600059536,0.250922155181,0.337180665221,0.301186125443,0.333082092817,0.282492352498,0.382476479709,0.25687219624,0.2834580005,0.224197295847,0.291279400612,0.290126524973,0.498746223882,0.402637963864,0.330437129647,0.322511060186,0.0476052589008,0.150040696033
/Entertainment/Games/First-person shooter games,0.469307497408,0.422770265119,0.649119753138,0.640878957699,0.324985664397,0.612795056979,0.421560800962,0.627887689757,0.730069283509,0.676700710042,0.107804195509,0.234429969426,0.424501887801,0.333469668196,0.305521569001,0.355595917951,0.30010688667,0.389353889138,0.389445805175,0.237071118016,0.347302221348,0.255619069549,0.364165435728,0.332772600543,0.2050656031,0.290866947803,0.253642830267,0.237951206634,0.328591712455,0.325945427722,0.315464878281,0.316023599857,0.39239032851,0.198130037188,0.231761367307,0.183747661138,0.275076376487,0.281238668336,0.514074175947,0.359950237815,0.292403356781,0.287135188246,0.0782588192085,0.168940901319
/Entertainment/Games/Gambling,0.463132647664,0.398722988639,0.56159758123,0.570578488562,0.362217702109,0.573725861434,0.414667083044,0.564038757839,0.583593556423,0.638912257227,0.138268723259,0.25394435135,0.416709507647,0.357532696235,0.316375596957,0.358825555778,0.322266711998,0.413503406711,0.384425602992,0.277648187649,0.357881333092,0.28816265105,0.375844244676,0.359420846062,0.256132172287,0.314846395149,0.28679860276,0.281242487611,0.353730953264,0.330133646421,0.338570628188,0.308247474618,0.387221189408,0.325239248729,0.294806278374,0.262453644253,0.331404961168,0.350647282886,0.506824111493,0.426790886656,0.36541782802,0.359183189298,0.0973314530436,0.206785974714
/Entertainment/Games/Massively multiplayer online games,0.491176616553,0.517356867425,0.65995984072,0.694855621328,0.453307396322,0.610285336965,0.515149689965,0.680587958023,0.683731564499,0.703512397114,0.108180646734,0.199240017146,0.412715629638,0.305761516014,0.256910005303,0.323914423848,0.27341187887,0.423233155607,0.366289819274,0.223032818423,0.310403068367,0.27404315262,0.341317908862,0.335795920803,0.235200517614,0.319173650109,0.254561673926,0.230646704136,0.323230933792,0.307826501387,0.308203473782,0.310772766631,0.38664402179,0.266160196576,0.311253710719,0.188795383366,0.294712540185,0.260188546704,0.509119906213,0.424687902213,0.298381133383,0.299585043344,0.0790649033825,0.128168871327
/Entertainment/Games/Massively multiplayer online role-playing games,0.502257572302,0.498139646338,0.673211184136,0.696082669667,0.429925736739,0.61944400496,0.504906960839,0.688096196203,0.682325566906,0.70168014143,0.100888060099,0.258422653688,0.466968138241,0.378603403034,0.326145970139,0.378565652173,0.347994969614,0.45779574488,0.400707776685,0.26132228379,0.357100836635,0.303914088386,0.377609779292,0.366748122962,0.263413032246,0.336271305609,0.284604531937,0.269265767884,0.356148726387,0.330411642701,0.341390766821,0.34232605399,0.417304829691,0.260034701145,0.284179945859,0.231099650883,0.322053175235,0.323869904246,0.546527455037,0.446779908486,0.357209573967,0.356973621432,0.0902255257628,0.101219675969
/Entertainment/Games/Online games,0.512265370083,0.435326198291,0.620900008095,0.633294338093,0.369857397514,0.580296099101,0.435396277504,0.627998531103,0.641745305863,0.695830971026,0.107608648306,0.195967623107,0.391705114966,0.314362411787,0.259155885833,0.321937179566,0.278024047722,0.402558299048,0.390793190177,0.262192594827,0.355727897238,0.303197570523,0.381450141599,0.36790234496,0.256741248778,0.340267625352,0.289826995469,0.267578383665,0.36274646679,0.31943134073,0.348070629716,0.341757462238,0.420644513313,0.253630892984,0.318709772464,0.222368920181,0.332841072372,0.301577010289,0.517138834377,0.429797805975,0.337764516721,0.337402861382,0.0653272796778,0.127688523063
/Entertainment/Games/Online poker,0.504936446743,0.447914129895,0.564740026767,0.597890706535,0.415544846209,0.551951585201,0.458531497671,0.59224253966,0.588554674952,0.643934518319,0.137630671487,0.219731742256,0.407693052876,0.3508625933,0.280499620111,0.348258088407,0.305870030132,0.427453255925,0.38056054238,0.298567769338,0.365793311865,0.338710827462,0.399494999393,0.396175797489,0.291672597663,0.379500352477,0.330591860008,0.301449119619,0.389515201845,0.345938114705,0.381948574915,0.366097581678,0.437138720916,0.287554679472,0.330149536556,0.292506046906,0.408801854399,0.36920197275,0.54568560852,0.488118039769,0.412778426384,0.401176108857,0.0841538397175,0.171878854284
/Entertainment/Games/Puzzle video games,0.579401981679,0.436308530537,0.65722684857,0.690225538858,0.347578981021,0.612253584154,0.4529644126,0.667520003455,0.699070745267,0.697332727094,0.121439871611,0.338031064982,0.525311231391,0.443924842472,0.374512583224,0.456065312355,0.40618333938,0.523253009949,0.46541263413,0.317695116211,0.415164524959,0.328538869349,0.414575096716,0.423981975275,0.285247321052,0.393124832958,0.310800262354,0.324693148462,0.417497485112,0.39114931755,0.402567278166,0.368600308268,0.458349812578,0.242739355823,0.273601773925,0.290032474946,0.400358809052,0.342449592757,0.611151613181,0.497546859349,0.404587104882,0.400542467211,0.0504514801207,0.182975121395
/Entertainment/Games/Racing games,0.478302383877,0.361780655735,0.569944926642,0.576550851021,0.248932125222,0.694098881278,0.369437582014,0.569168006782,0.615688735486,0.671557928287,0.116428467338,0.174362364346,0.353198721726,0.292046582083,0.229105063902,0.291955820929,0.257001469905,0.358938364076,0.342480575629,0.22579850404,0.341878692103,0.257519598118,0.338497731897,0.330499100741,0.212171075258,0.276918407293,0.272055417785,0.229759181455,0.323253283657,0.286860070792,0.30960923919,0.261263821943,0.369724003369,0.249455929154,0.298543437119,0.190450212576,0.266596954196,0.261343709065,0.464608662691,0.377898359092,0.307036243277,0.30281923096,0.0627068062786,0.123351442422
/Entertainment/Games/Role-playing games,0.487873157065,0.365148136001,0.609201460138,0.601039030273,0.266735661059,0.581117675366,0.376703470505,0.603462082925,0.623051324163,0.659940566502,0.0783497292226,0.273560189004,0.443190352119,0.396644871344,0.340957890967,0.383030388909,0.365769905366,0.423386382865,0.411837137073,0.284552835897,0.398215840195,0.295780696023,0.391644893533,0.372786272598,0.250839567171,0.3125692536,0.291169449184,0.291334206584,0.369835906831,0.325237540261,0.356536931521,0.329854750335,0.416535595319,0.213388186388,0.230095066247,0.248964948103,0.316330234312,0.345654485056,0.531175182447,0.412785582766,0.377480748307,0.374582258638,0.0660586546472,0.0855787004645
/Entertainment/Games/Shooter games,0.495590552609,0.407823741319,0.624230862371,0.637066497839,0.293832203052,0.611469497991,0.414744082737,0.620010908994,0.721028986939,0.681222246437,0.0938254154875,0.222826939479,0.415935914381,0.326468846141,0.26680532215,0.345256507718,0.297164605616,0.405912826284,0.373259931048,0.228734675648,0.342868185685,0.244404639761,0.332773984693,0.32512360708,0.196173929537,0.294925323768,0.250454459943,0.235326551204,0.32293461391,0.305116925236,0.311396729372,0.265076308801,0.36782152308,0.209175385749,0.255100691024,0.204624278804,0.288714170368,0.258929158874,0.499530248026,0.400623085646,0.312453702504,0.31041828975,0.0651194316468,0.156686785324
/Entertainment/Games/Simulation games,0.489040452505,0.400981194645,0.613363363598,0.642475776492,0.318035667002,0.591257581484,0.395659415598,0.616849124096,0.643636888933,0.679328483381,0.103373885332,0.184508155384,0.38530034304,0.292354574921,0.23264793405,0.301370156896,0.26290978505,0.393898375289,0.346438186958,0.219124340689,0.313107773522,0.262816025743,0.323254852331,0.326278182384,0.21056735149,0.282154544166,0.244269164572,0.223815902059,0.309597923562,0.276158755584,0.298273721738,0.279440863224,0.36849576202,0.236796544371,0.30537107206,0.168955063188,0.260740231245,0.236210615896,0.492461477233,0.391099099344,0.280872384718,0.282145060037,0.060707611628,0.118466778735
/Entertainment/Games/Sports games,0.46863351592,0.364243603617,0.571762745484,0.57748934733,0.296008173613,0.585042018952,0.364286433881,0.574085530515,0.608803870434,0.731760862703,0.126900392131,0.171040180038,0.353337985617,0.297031655384,0.238563684179,0.298122782229,0.257390098068,0.363221771822,0.380159715871,0.237853452643,0.349648438374,0.278871577767,0.364443425209,0.345486254596,0.240893718635,0.294156487691,0.283420124664,0.241285394459,0.339308919982,0.298230504333,0.329635815432,0.301453104436,0.390595150187,0.274126990523,0.345205415754,0.207766628746,0.302685239289,0.295042293205,0.482978497489,0.397191704453,0.329312120606,0.329788596522,0.0703351113747,0.110728360805
/Entertainment/Games/Strategy games,0.469726980621,0.424932102099,0.644458802044,0.700127082689,0.349490252509,0.593273837309,0.416786278607,0.628517888419,0.655523227661,0.685166038713,0.0543761148992,0.161520058139,0.377263155202,0.273235878914,0.217181191397,0.284213414321,0.24359477833,0.358813357014,0.346939767444,0.197148114064,0.300681744254,0.229005404644,0.32242915778,0.304346442514,0.187570740385,0.272241526126,0.215074708655,0.204758473128,0.298474624809,0.27862964489,0.279203194074,0.277567264399,0.356835691767,0.209140120481,0.245464759284,0.146669593335,0.24760157092,0.219973231024,0.480769211155,0.355944321855,0.262571383971,0.261558872813,0.0572285393596,0.103897285026
/Entertainment/Games/Video games,0.563130606239,0.402439791389,0.637497567066,0.643851612667,0.315154428777,0.600106787338,0.424301171604,0.63709989102,0.668204845654,0.69299681088,0.108018027334,0.325440953745,0.500825516923,0.437508640571,0.373353074309,0.444142361653,0.393680374829,0.503079798156,0.484738721094,0.319609395721,0.422231507983,0.32783821611,0.431195360409,0.425817343487,0.283152005195,0.384196543183,0.315323395052,0.326992109118,0.42362363953,0.394327785775,0.405124039375,0.373146393774,0.466164866856,0.248880115606,0.28097539723,0.290329388732,0.400797195391,0.359269088885,0.593355086494,0.486257484333,0.40905716784,0.405529493838,0.0522052043889,0.158809973857
/Entertainment/Games/Word games,0.506810873717,0.385509231947,0.618370771369,0.621196953345,0.295319443966,0.573927877205,0.394009628064,0.617491048127,0.651381203124,0.672875719911,0.0865944023091,0.256272692543,0.424942993791,0.363309023523,0.314011950817,0.371564888302,0.333835132384,0.42713995006,0.405378907553,0.296605378794,0.398539591777,0.31183155624,0.403800828711,0.390609983144,0.278423307967,0.345004151484,0.292735990131,0.305740096618,0.387418523048,0.362470730075,0.375979425667,0.391562912194,0.431456102299,0.207077348324,0.240063666391,0.218033392683,0.307718894713,0.295881050139,0.536504286411,0.407340490958,0.332587523455,0.327365513919,0.0691471352248,0.139873171994
/Entertainment/Live events,0.448167221019,0.224194933639,0.364160417706,0.351176340995,0.269254375346,0.336130146028,0.286180578114,0.349506246517,0.343623361608,0.431515840593,0.303553087962,0.360225658292,0.457608754547,0.453515665311,0.390636240467,0.425389992544,0.407772595405,0.474505181788,0.44549364492,0.420892090889,0.45102678967,0.4348802272,0.4965642984,0.496722115958,0.424786077028,0.45914943461,0.448927098615,0.42413560339,0.478670137694,0.442477360888,0.474940569904,0.435887662302,0.51882076521,0.434460323382,0.404818754331,0.418004256409,0.491196747462,0.472981464781,0.574640402561,0.522356446567,0.50124574265,0.488297219342,0.0489172140103,0.26308052586
/Entertainment/Live events/Ballet,0.449837767722,0.176734639476,0.303163944614,0.301077472096,0.209617825774,0.288345281174,0.248022997612,0.295842847782,0.293620889218,0.378628847527,0.253188587577,0.404345856137,0.456264990998,0.479486043722,0.415546732383,0.436614728917,0.454666601307,0.463308037136,0.472536254306,0.528009398275,0.496605256599,0.541243647658,0.559127890993,0.601889826071,0.513648467565,0.493169695775,0.538472504434,0.521107210569,0.548355168676,0.496762831645,0.543977860167,0.513879739335,0.576579019871,0.399414098353,0.357521180595,0.446118284051,0.495489993585,0.493379556133,0.546246042456,0.498179403222,0.513267641728,0.513688788271,0.0504968249509,0.19124343793
/Entertainment/Live events/Bars,0.424548187572,0.197675409569,0.356434268328,0.332226205708,0.247077604139,0.351500153524,0.269174816223,0.338567858747,0.344241819344,0.422751908507,0.302838757648,0.363895697539,0.44199339735,0.447150162212,0.382280559909,0.414290216252,0.393373623799,0.458425783022,0.443544639816,0.414195157627,0.462227157248,0.417977680924,0.492627795766,0.494101072246,0.416391259093,0.459580556848,0.443652258546,0.419305519347,0.470357358473,0.456115763446,0.473038412001,0.414171513929,0.510559448157,0.461605982357,0.41625615117,0.403604677145,0.450418811288,0.441583438058,0.552837243934,0.492705026929,0.479671630423,0.459900759873,-0.00259805724949,0.247442708378
/Entertainment/Live events/Concerts,0.40313980066,0.184245155498,0.337580854341,0.303373527416,0.209848683733,0.311823797273,0.245798821049,0.318232473318,0.306572794609,0.413910358912,0.281821820652,0.346278411884,0.416472946581,0.440002333635,0.390011195136,0.40052474525,0.390310362541,0.43089945398,0.432680612835,0.478067281656,0.509348790289,0.505386100533,0.562719920651,0.553828892346,0.485502854076,0.485176385308,0.520305144803,0.480741477768,0.533865044234,0.468251006875,0.529764662259,0.485386994074,0.574066010152,0.449279019954,0.42853854777,0.404740885063,0.46340617963,0.478256164664,0.543574230819,0.478149377708,0.488396388139,0.475874415474,0.0254803892317,0.209892588629
/Entertainment/Live events/Dancehalls,0.443724816824,0.22196603335,0.360536173241,0.346527410976,0.266874201031,0.336734182479,0.288574844056,0.347177619175,0.342347747477,0.430948841735,0.313928461328,0.36361851066,0.456827539404,0.458336737121,0.395437001511,0.429434495241,0.411454504344,0.475916267216,0.449817413425,0.433509436974,0.467111118189,0.449346642477,0.512049764804,0.512140654159,0.442123821791,0.470868936047,0.464782128209,0.438231868776,0.493314049537,0.456516104037,0.489555890319,0.445762709325,0.530194636458,0.448666862278,0.412659544548,0.418150364271,0.488971243422,0.475031799409,0.574431614453,0.521401322376,0.503393244153,0.489443608363,0.0494597913125,0.264592846222
/Entertainment/Live events/Music festivals,0.43981997933,0.197483726365,0.314199710515,0.299234863699,0.236918974534,0.295343088872,0.278401629298,0.312761382121,0.287957212867,0.405479998088,0.302615865651,0.377165755378,0.428051053744,0.465390244472,0.406006276891,0.435957742966,0.434247655268,0.467111785002,0.493042994223,0.628383841957,0.606139531468,0.67156366006,0.691614075373,0.70000266617,0.662940623059,0.602737750946,0.654756228496,0.630416217489,0.675315682504,0.578277753341,0.668574313784,0.63783600194,0.699013827796,0.480777655902,0.423233110591,0.426605367073,0.497094723519,0.493489311618,0.524274875367,0.50830543591,0.505995233485,0.500221590039,0.0505652576845,0.218185579796
/Entertainment/Live events/Nightclubs,0.411920475709,0.207314793075,0.332561399948,0.307416759779,0.265012255647,0.326339992879,0.278422471773,0.321462195267,0.311115894474,0.411883712596,0.308626419974,0.360101799911,0.430550987583,0.458668157883,0.400663708414,0.420422716277,0.397281365477,0.444029825187,0.434612854149,0.442227731245,0.486672976933,0.46198760345,0.529511400359,0.523696520645,0.453550259895,0.47514994081,0.49329562491,0.450026692555,0.507777440844,0.47632500691,0.497863672261,0.447659487589,0.535950808564,0.533419999385,0.429573361436,0.414513022627,0.459974757252,0.482232163749,0.552761349865,0.488457428635,0.503737978992,0.479129501663,0.0639717932965,0.251964360971
/Entertainment/Live events/Parties,0.394079150733,0.272587192244,0.405290604573,0.367700082291,0.335682828158,0.329171975219,0.316152608926,0.360883592566,0.347642061513,0.437778371443,0.271377313666,0.314773910009,0.41434747142,0.394998910066,0.368123504679,0.36962866377,0.345366576867,0.395067326332,0.41662770306,0.373013262857,0.416466393025,0.390998693857,0.482854895155,0.444079913303,0.390269727991,0.425491729397,0.412156757722,0.37897879557,0.431681713787,0.409747609388,0.417288403721,0.423285017016,0.476075626607,0.441118561178,0.393324549004,0.356952152874,0.401125008899,0.439968951736,0.530949850767,0.43027750801,0.429801391424,0.415113063168,0.0363832071202,0.249876031318
/Entertainment/Live events/Plays,0.453644534256,0.213891411747,0.357119929897,0.342290743271,0.235930642241,0.348889922481,0.281922947957,0.362861312067,0.353872764986,0.434529891526,0.27257611886,0.401151102067,0.472144121876,0.507219494809,0.41832141561,0.460387683119,0.465779731012,0.489630019752,0.459358473994,0.457764142678,0.504978665971,0.469265195729,0.515231097207,0.526418657238,0.456573150454,0.473646546395,0.487725719524,0.463704666626,0.508468021733,0.463860696134,0.501378862885,0.461681163572,0.531269704621,0.422872982229,0.368293836128,0.444981784557,0.508115745369,0.492683361989,0.566611737426,0.526935119574,0.543454739753,0.531683106157,0.0774299138744,0.224439006306
/Entertainment/Live events/Theatre,0.425041557243,0.143338703815,0.263275414907,0.260265619033,0.186391465212,0.234606952443,0.201416240332,0.253032027204,0.245020804486,0.348025925457,0.294016408233,0.386952541689,0.437782991935,0.476455150127,0.404505758259,0.427504273455,0.439576652603,0.445018399171,0.464492018554,0.480580216742,0.462207148412,0.492700484703,0.509419721999,0.536733266524,0.469116139091,0.455256798592,0.499752559807,0.474939514716,0.499228703034,0.433292258924,0.503924212968,0.459487984652,0.530912870305,0.410324632441,0.387954835522,0.443481452528,0.4921882942,0.496899132697,0.513053671442,0.490299716753,0.5228933236,0.516358556283,0.0159123134309,0.198929875794
/Entertainment/Movies,0.616062465058,0.290086783799,0.357800716396,0.388769529241,0.284272782684,0.319647835384,0.347095161692,0.36071599786,0.359868884744,0.403341173442,0.200284859905,0.590214481565,0.653176345211,0.674762758401,0.602578690135,0.660550208757,0.640475717457,0.67352048862,0.596903521656,0.487704308441,0.471990753103,0.474946982836,0.513466373527,0.509462227395,0.43692285695,0.477924163483,0.455833611328,0.486834056477,0.534488376088,0.478239203271,0.511335307731,0.488133177439,0.520337110443,0.338774990091,0.256532392479,0.517724893029,0.602671468028,0.570315324458,0.57264611742,0.628744086881,0.613069370811,0.603246490037,0.096284697121,0.309308927771
/Entertainment/Movies/Action movies,0.620742243605,0.319336650898,0.489684213728,0.45681288578,0.311355145225,0.352109602284,0.377806843462,0.397615105753,0.409432013564,0.420629423465,0.160815403535,0.616758797446,0.760767712022,0.700303053395,0.630234943457,0.6969003495,0.675018211517,0.696129430331,0.614520892971,0.432471408885,0.431329454484,0.424128088121,0.469034128395,0.457859182615,0.383614885282,0.437473752704,0.40348738275,0.437730331621,0.478823493961,0.453127006245,0.458475778214,0.46501932362,0.484381780257,0.304220349108,0.222573934992,0.489641524379,0.584312077038,0.548206175305,0.588508397629,0.612294458296,0.593226999617,0.590369126306,0.0849438851874,0.280717262378
/Entertainment/Movies/Animated movies,0.687332247099,0.267860152254,0.367149894076,0.399983544809,0.242045082738,0.311821070243,0.32636064808,0.359781916298,0.359039186444,0.374880428382,0.173319616191,0.661703227743,0.726107871458,0.74324819772,0.658772246786,0.731384328064,0.706910895686,0.729754138353,0.636919415231,0.472602658353,0.450223188995,0.451463473645,0.479411126371,0.486660414887,0.41499177029,0.458539708477,0.428013880318,0.474322306529,0.508746140753,0.45548574085,0.487128481851,0.478587436978,0.500495379192,0.262538098058,0.217904828442,0.547370649124,0.649314411151,0.588318274833,0.601300740789,0.655030726089,0.646417707515,0.636229851713,0.0998198499485,0.245269318959
/Entertainment/Movies/Anime movies,0.679652265942,0.306652458898,0.41348753817,0.43632055604,0.290197693276,0.348478692259,0.369891219329,0.410780276356,0.405031283739,0.433511974965,0.173001254203,0.662226740714,0.726950304177,0.739455481919,0.671637291005,0.738629497198,0.711124666235,0.74037122462,0.662739705393,0.490623915317,0.485345223939,0.472675928597,0.521058069588,0.514313974905,0.433864142114,0.48282762144,0.449884595951,0.49325739866,0.540123880663,0.489489011486,0.513881750018,0.518485028903,0.538832824192,0.300826324867,0.224186450472,0.548035127176,0.633572101201,0.601203600247,0.629591300925,0.666088876492,0.642636317751,0.639871965087,0.100564214342,0.269451877166
/Entertainment/Movies/Bollywood movies,0.591978643361,0.282485933757,0.355633659479,0.377340248622,0.28210346567,0.301590506814,0.346958054095,0.35008881535,0.352251484931,0.384606152222,0.189859412519,0.649623214685,0.690622240714,0.723816761982,0.663029983739,0.716939379114,0.690228820148,0.704687344317,0.652547774731,0.50495268882,0.489361614265,0.496451483344,0.537914667936,0.524161411134,0.452406314138,0.474379971166,0.471659272635,0.506721667757,0.552552262344,0.506897135046,0.51814018114,0.519848837069,0.544356293704,0.334256755583,0.218351252371,0.53560698256,0.61665513573,0.594543470767,0.584952327595,0.629668545894,0.627150474237,0.614591692546,0.115923841249,0.28858367294
/Entertainment/Movies/Comedy movies,0.615191186862,0.252326408744,0.333893502383,0.369429913078,0.246180425131,0.290925680996,0.326541559854,0.332213314158,0.332942108232,0.362162469205,0.160255519464,0.688030858276,0.725021224753,0.808113963935,0.681739504041,0.75266362681,0.76307415827,0.744911617766,0.65741005561,0.520032017817,0.504598834702,0.478933709587,0.518759834601,0.527481175612,0.441713681358,0.483292637406,0.472488913913,0.523208198017,0.549706477731,0.500219939875,0.529402309321,0.496161400359,0.526303733836,0.284107299273,0.191696416732,0.599674704095,0.681946462604,0.634518441888,0.623473044925,0.688614847534,0.733517332621,0.701767012812,0.115410176487,0.297005201275
/Entertainment/Movies/Documentary movies,0.591164147867,0.237129675797,0.312315032839,0.350959196471,0.233022347869,0.260401810573,0.306247167618,0.307540826717,0.309719591625,0.338162070073,0.178717645844,0.681956264208,0.710784985675,0.748469957412,0.666988101613,0.734239074211,0.722679739399,0.720835255625,0.666973089062,0.493734091395,0.462523512795,0.459864143592,0.494310693494,0.489304433289,0.422529278768,0.447002960146,0.448537025638,0.495387066153,0.50998664415,0.465866092611,0.491636814718,0.477485405941,0.512998614588,0.280834643514,0.199425805458,0.567009659335,0.721764606693,0.594194416853,0.597439546834,0.644850087946,0.650648589005,0.649899424918,0.099947149165,0.280925806016
/Entertainment/Movies/Drama movies,0.599992247087,0.241566882005,0.325032208119,0.359907243164,0.236598266892,0.273006141632,0.309430953573,0.316875076509,0.317817917127,0.349680711892,0.149490628688,0.697034300938,0.730336632572,0.781571001486,0.674994392041,0.746786909999,0.786268929348,0.741519427633,0.658553401343,0.528102869423,0.486734208863,0.492563027409,0.513227770473,0.520582230519,0.449511344388,0.468142735644,0.470366907718,0.527413483063,0.53850131755,0.474529667735,0.518368093794,0.503510563639,0.525848555966,0.279269052337,0.200602251019,0.599643674543,0.68320245246,0.621223486294,0.599266909792,0.678405923043,0.698603791839,0.715925559697,0.0953068413156,0.281254146403
/Entertainment/Movies/Fantasy movies,0.65856550783,0.327411330371,0.40451511631,0.462113205861,0.307141206438,0.344789257257,0.388834233285,0.430639049435,0.414464506507,0.430087909915,0.190752029421,0.674656780971,0.739977207055,0.747741198481,0.662783532132,0.749583135089,0.733812902516,0.797786696815,0.643351360131,0.525465172202,0.511116931059,0.502253703313,0.52622839033,0.534808931461,0.467354054566,0.49836107531,0.481852375998,0.526590806516,0.556234922013,0.497361267389,0.535725754376,0.514674582116,0.548170741023,0.304983119528,0.229361060726,0.55513684413,0.648056338081,0.584506358394,0.621734509064,0.721278735989,0.646337775242,0.639403391469,0.120276924051,0.31485218163
/Entertainment/Movies/Horror movies,0.644816658391,0.311353559669,0.378810879874,0.41491009188,0.283929154611,0.318388803805,0.386920148642,0.384151853623,0.387382646174,0.397006063829,0.183447893588,0.674582468428,0.734956458248,0.762164794203,0.68187327158,0.793483706234,0.738154713957,0.763144763224,0.647416951395,0.494528753039,0.492407376974,0.465317413323,0.504853212311,0.507762449598,0.433017530542,0.489360685363,0.448971467021,0.50081164825,0.53575620494,0.487606442859,0.520052845684,0.490970547027,0.517386858945,0.298443354336,0.209394956251,0.551663993422,0.657278237768,0.600947978371,0.607928693556,0.683050740984,0.658292910786,0.646773798721,0.116814561155,0.331030193244
/Entertainment/Movies/Musical theatre,0.523194416034,0.155219287314,0.220110339309,0.251476100494,0.185759101249,0.194431609451,0.222149292854,0.234137014438,0.213608080224,0.284569476386,0.19857999593,0.560288601845,0.562921580714,0.644928914242,0.561622150601,0.595642530876,0.62372125989,0.585276279137,0.5641807277,0.610366620971,0.532376945333,0.620084579411,0.586875845342,0.631453436035,0.578635932389,0.51999989722,0.587011744729,0.598810037816,0.616976526994,0.524148062205,0.602243813354,0.576577542628,0.593320609855,0.322313879739,0.254365247009,0.488448013421,0.546274095235,0.547155715115,0.490293901858,0.538800675118,0.583963366459,0.576999282078,0.0559379858189,0.203736494808
/Entertainment/Movies/Science fiction movies,0.607216943984,0.269723748036,0.299456106791,0.367869060086,0.302312327265,0.236705325598,0.322414568707,0.326662257235,0.298938548792,0.345570102806,0.205668970452,0.59001632144,0.635060728721,0.648539998828,0.565200486795,0.654055009137,0.659806351818,0.695063210661,0.583496520833,0.485737712247,0.424440309878,0.49553998046,0.458634972773,0.472871439489,0.442177383876,0.433104858217,0.457756043645,0.482224263242,0.489674488373,0.418065223104,0.468266202419,0.486333538522,0.495325478461,0.287557553956,0.226327905416,0.494467642734,0.627123252413,0.523916340119,0.530552016332,0.634494896216,0.567157000907,0.575055248901,0.13664969861,0.275206388726
/Entertainment/Movies/Thriller movies,0.602250216978,0.269180656325,0.357959217076,0.401065804985,0.247093914058,0.296616671158,0.343083286363,0.347790696939,0.363956242524,0.358236720171,0.150919141611,0.697805377044,0.749743148007,0.774978954496,0.67574204004,0.768246198737,0.768272933825,0.758161733653,0.65019004,0.476993794287,0.460658233151,0.432506036196,0.46740441925,0.474960093061,0.390872148208,0.45567405333,0.421888458311,0.481558706749,0.502201634839,0.454723795816,0.481723030373,0.453499085496,0.47873361983,0.267055339776,0.168414402273,0.554837941486,0.650327696466,0.570432453938,0.585762270344,0.662940999202,0.654128865563,0.653549726437,0.107367879014,0.319764885573
/Entertainment/Music,0.502331673021,0.209580242403,0.268141304229,0.293972631165,0.240851748938,0.269628638858,0.294782982014,0.288783626925,0.273028470481,0.341126777112,0.201762230721,0.390054245121,0.435144502859,0.478666688774,0.410374297393,0.447333128058,0.471035789346,0.495215307623,0.458165759123,0.724414461647,0.630276092812,0.744553891161,0.728006372897,0.769501592423,0.699527032744,0.654053490943,0.681327354993,0.712293118014,0.764743089637,0.640694493286,0.749486716338,0.705557744679,0.726143438372,0.345376121517,0.257707597281,0.405936167638,0.474314000157,0.467511917731,0.46273758115,0.512977452454,0.491438488831,0.489324462741,0.0426770003192,0.253423675361
/Entertainment/Music/Blues music,0.464896205678,0.151494841356,0.245449918835,0.26222123204,0.170138698907,0.268572435974,0.268703105762,0.267995862423,0.263310782642,0.317712226448,0.213040078488,0.409944561117,0.421989416311,0.493132417334,0.419759109641,0.459203545158,0.487296186278,0.490587425954,0.46862671381,0.799730594405,0.779174944816,0.809124134704,0.799960412554,0.843364820666,0.775778342172,0.725937252322,0.779910843108,0.792607705287,0.838773137782,0.715774296045,0.836775562677,0.749454011148,0.784175710993,0.322480790042,0.213260352292,0.410846410477,0.476140023557,0.45604570952,0.462490203856,0.496951342642,0.493258103389,0.485507214635,0.0206295523106,0.258973968823
/Entertainment/Music/Classical music,0.434694070377,0.16949899913,0.217913542639,0.236543222754,0.223984271292,0.213323269089,0.259843241345,0.242693369466,0.221828236733,0.286397666042,0.183274585097,0.347845515503,0.361532925654,0.420831039576,0.362669368321,0.389530758463,0.435982798761,0.436692066242,0.423992720823,0.78286351348,0.661381718883,0.87631417373,0.779079757,0.827772893048,0.8111313423,0.678369294925,0.758287956708,0.76801475666,0.814819373229,0.669654423895,0.797012316094,0.791178181734,0.77125881662,0.309797097477,0.236353991398,0.341347688239,0.402163116438,0.408567510769,0.406823760982,0.437570455415,0.41498590369,0.421423962207,0.0427671917684,0.157784227397
/Entertainment/Music/Country music,0.440211878055,0.179356732599,0.266736567943,0.285446913834,0.218447686534,0.273666516109,0.270875302656,0.276612064171,0.268999806136,0.342376771878,0.225317468412,0.37352757557,0.405074713974,0.457295812373,0.41946053709,0.424406156866,0.449727894874,0.447382485063,0.493842891514,0.76246170418,0.681096741633,0.800948231793,0.850597932855,0.816425740557,0.768458573576,0.68779376569,0.734600689717,0.750347084717,0.813972097799,0.689948960538,0.798244232292,0.778610171105,0.801035811629,0.359864610689,0.253763237908,0.360992796634,0.434956364707,0.4577045668,0.453579243929,0.44362779761,0.446549296708,0.444315323892,0.0128043765299,0.234713087047
/Entertainment/Music/Dance music,0.465962807072,0.182323532569,0.251492668058,0.269756684431,0.216537813697,0.26310143249,0.284445294641,0.267885774969,0.257569770029,0.322723322865,0.203547371407,0.422556210884,0.435259928272,0.501344979298,0.423606637273,0.460210164506,0.501046531677,0.492297189492,0.476013480597,0.809158055457,0.703145768238,0.829689405974,0.800360342076,0.885005491456,0.792621550377,0.704659760463,0.765700068873,0.798888617986,0.83953727546,0.718466914079,0.82593612378,0.778361621175,0.797639171741,0.336376465756,0.25257978734,0.415411846204,0.466143301475,0.45574478489,0.476995780083,0.492628595115,0.494630828421,0.494611601446,0.0357159942581,0.215739484738
/Entertainment/Music/Electronic music,0.464104738487,0.199178416157,0.256282109982,0.286463896718,0.250605908186,0.254660574209,0.299392338203,0.284006865397,0.258424721124,0.31907764002,0.190474794242,0.319711948722,0.369460837245,0.406784259301,0.336665572291,0.381819239353,0.402830859607,0.448630661243,0.406456014951,0.72691088331,0.62656329651,0.788495512016,0.73928043773,0.803001268405,0.746769626959,0.686116912474,0.708553159418,0.718042418655,0.783208184637,0.657002284329,0.76677037584,0.741354216191,0.741420846999,0.330815107057,0.275279502068,0.328364858472,0.406726224366,0.392828100673,0.407463718652,0.461486675952,0.413983089345,0.41390149478,0.0352995969738,0.198106870436
/Entertainment/Music/Gospel music,0.434616824126,0.173065785077,0.227462123726,0.245211010596,0.208159017852,0.217281714936,0.271459488282,0.252683184434,0.228963516987,0.289774256504,0.200371494454,0.379244734522,0.390958652655,0.451498162934,0.403108257388,0.424698377566,0.452057358357,0.452269314948,0.443013014773,0.786195336581,0.696949045011,0.819086394439,0.796648555811,0.821728367491,0.780343855403,0.689118322332,0.748609564918,0.77524731211,0.820865934132,0.703336363926,0.806987718878,0.773080890967,0.779411694779,0.308930429135,0.20608207009,0.364049938178,0.43635082346,0.433937962469,0.435648336466,0.446624169007,0.438242974933,0.435251618175,0.0189221597397,0.239625630236
/Entertainment/Music/Heavy metal music,0.474228219158,0.1756333655,0.282907562962,0.280450544455,0.209686386572,0.282343166681,0.317898109214,0.295421984475,0.285257067598,0.311601670584,0.199912463462,0.324553468894,0.384715544615,0.417734862434,0.352048374272,0.413340315465,0.410201315058,0.455729783749,0.424720651297,0.687930979707,0.637755485047,0.744391529414,0.715586476638,0.774129108441,0.724171120463,0.705338481144,0.674586134568,0.695024395438,0.768842994706,0.68577445126,0.776633507306,0.707125051428,0.714657402979,0.313309809141,0.251639982537,0.303667914884,0.381777610426,0.367248031698,0.409425707659,0.447541668739,0.400611398006,0.395397756288,0.00562243247108,0.209881387026
/Entertainment/Music/Hip hop music,0.47634281262,0.191114835813,0.270732541454,0.275019081694,0.227490142633,0.263512635458,0.326160857266,0.276706241823,0.275295751116,0.320839707664,0.19992060718,0.389252163002,0.416945255482,0.478652434996,0.414148152022,0.450252409712,0.465885876802,0.478527727909,0.47089009414,0.76574230895,0.698411356802,0.797516849521,0.784981950956,0.849817605046,0.770736016063,0.73321531744,0.752115766341,0.763791397989,0.837282393568,0.842594841754,0.818394068777,0.757403472327,0.771199735915,0.35983622629,0.229967991315,0.374647094433,0.447244322664,0.439978026922,0.461496001139,0.473920298432,0.46622712753,0.454804341511,0.0296222138392,0.208214964505
/Entertainment/Music/Jazz music,0.451616166893,0.158673350828,0.227963939374,0.244507963698,0.189479429487,0.245659748347,0.270422910073,0.24883932829,0.239623327039,0.307448193668,0.203970041577,0.373249571892,0.389169115288,0.460101608105,0.390296759233,0.420052990862,0.456187292002,0.458933305225,0.450144186285,0.796364098566,0.723656891818,0.83836166699,0.799596404764,0.853036078483,0.787329962018,0.709942220102,0.816060933094,0.787477990507,0.839088149155,0.710958726833,0.829452084189,0.770073677761,0.787179698402,0.33897695476,0.236142153443,0.380976273635,0.450013689372,0.440607974427,0.434317860285,0.470081662397,0.466191298315,0.46138897311,0.0377188188071,0.216805772513
/Entertainment/Music/Music videos,0.536093041071,0.231835928944,0.305166616343,0.317511938843,0.257365062743,0.290846218661,0.332486610538,0.322566967519,0.305271669351,0.363995805705,0.197937614111,0.462583361325,0.486893170003,0.541920427243,0.478285607019,0.515911312343,0.527057620309,0.538984878463,0.507793267522,0.787092266029,0.701009234305,0.804164594305,0.800882411817,0.834595724169,0.752684186381,0.708748728501,0.731838741416,0.781024460742,0.833520681527,0.714703435633,0.811797828952,0.775673736605,0.797010638134,0.350647471295,0.255543673448,0.448435318611,0.536739229863,0.506472503123,0.522559842878,0.534818212156,0.529172850648,0.526821193791,0.0489296532523,0.24899137183
/Entertainment/Music/Pop music,0.483212849365,0.193031294776,0.256142994057,0.277160401973,0.221075022951,0.264055742756,0.313318673778,0.276552034883,0.27050930375,0.321185343164,0.205348045016,0.417257815503,0.433258919449,0.502645840788,0.430716661171,0.471901714716,0.49890811567,0.50869151079,0.477331089928,0.800958243018,0.717099654259,0.825170432285,0.808538078326,0.864112885072,0.793755472427,0.757590565453,0.765454660936,0.795516817955,0.882757291236,0.753507621703,0.846405058375,0.784368847219,0.792853726609,0.343639784899,0.223560552734,0.410000048876,0.469410753579,0.459730136276,0.478771470355,0.509625144645,0.496027226854,0.488108426832,0.0580420316445,0.249593032316
/Entertainment/Music/Rhythm and blues music,0.44445376877,0.146636616155,0.26396481186,0.279887433665,0.195576913058,0.274500801954,0.273386520661,0.274726012981,0.268673319452,0.311777836505,0.238401428805,0.398125106279,0.418015765457,0.470967024566,0.410689031934,0.44006428722,0.467716469038,0.475903728708,0.461452150157,0.784414335108,0.771348500885,0.804960748995,0.790446105289,0.832956389346,0.784288120173,0.725869077546,0.772908443742,0.779321581755,0.824452854987,0.722573698962,0.822116322507,0.750395326812,0.772470743824,0.31726050972,0.21690678222,0.380386789349,0.435083215872,0.429257695077,0.464390830647,0.468734930931,0.455502479861,0.441929449392,0.0190299798857,0.249305173607
/Entertainment/Music/Rock music,0.462988200422,0.162823951368,0.239950233636,0.262780198989,0.178088066488,0.249056380288,0.2981423056,0.263933389874,0.254347612688,0.307251958946,0.226877899868,0.402298927546,0.426083444498,0.485677829632,0.412932159217,0.459415508647,0.479816425466,0.49236492071,0.471461003448,0.787516730433,0.713745916874,0.810532393862,0.789253317002,0.844908935247,0.78341842961,0.785508854759,0.76069295188,0.784773581296,0.842966791649,0.725424318544,0.875173687088,0.758405210426,0.777390921516,0.335556223899,0.258768528401,0.395571457812,0.455466717002,0.441945235276,0.452686202232,0.493522160932,0.479544799485,0.472103715504,0.025250452187,0.242830930317
/Entertainment/Music/Soul music,0.465298673861,0.175846017705,0.253999734325,0.271963314169,0.202154169076,0.249529330596,0.287940006408,0.270280846335,0.263568378732,0.29742476484,0.200961506956,0.439455447471,0.4465420665,0.50397211559,0.445987356308,0.483397217973,0.509125857919,0.512521174501,0.465263617159,0.817745830831,0.734288209186,0.81767316155,0.805743954162,0.852262360606,0.7770924326,0.722941365484,0.765504887375,0.809122486614,0.847029156171,0.73824940375,0.834160004443,0.772310442818,0.800622826195,0.311362022541,0.190667457025,0.424280788512,0.481788098363,0.465699820548,0.480073391246,0.507337094613,0.490170969141,0.489280302749,0.0465544450628,0.29393616339
/Entertainment/Reading,0.360808858221,0.184017802233,0.173392285794,0.209504415744,0.196285755484,0.1661380036,0.199226781995,0.206481478597,0.177285646538,0.212773899122,0.161884195311,0.214380280355,0.296551627804,0.286474152643,0.204951441976,0.254388572244,0.286435025909,0.330161302128,0.24140854153,0.301057877695,0.259036798482,0.316300776924,0.285791802568,0.320712383226,0.278299394619,0.294663640446,0.287888030544,0.290671018199,0.320247088097,0.261290952067,0.306075825691,0.295394974531,0.305348130111,0.211300617315,0.214332478778,0.269609136502,0.355413786054,0.276939078369,0.282753261931,0.375157927854,0.332514105711,0.333455497894,0.0329127683295,0.188723233211
/Entertainment/Reading/Books,0.385668709029,0.16791190126,0.116568725909,0.190909851248,0.198222670027,0.104960350698,0.172186997095,0.196394402328,0.135967245757,0.17296854781,0.177508171411,0.251476315248,0.285950858888,0.28279045913,0.221103337714,0.269834526405,0.312422551898,0.338404079556,0.242976230471,0.350665336572,0.276444724547,0.361721143389,0.29800053638,0.313375325063,0.313359845721,0.284875216266,0.324713197379,0.337015087776,0.32627200067,0.240052294279,0.309320190167,0.331526243293,0.335531060311,0.18459875266,0.181926276651,0.300950381578,0.416642145259,0.292259606273,0.263200200764,0.37859236363,0.32287213043,0.333930596783,0.0279892012624,0.193491356089
/Entertainment/Reading/Comics,0.6485147695,0.233426346945,0.238339993301,0.295580970183,0.223773280249,0.21598978892,0.282969356688,0.291975829358,0.257621962531,0.260649272189,0.16620312053,0.330102674669,0.427036640046,0.408159049008,0.316302126518,0.391086552767,0.4072198853,0.467621248403,0.336306409656,0.334508920299,0.302313269313,0.331354828058,0.313048129367,0.343719739935,0.287204750137,0.335384678246,0.315318533277,0.329472534072,0.359108341486,0.318994813542,0.342301091829,0.32981547631,0.343935991356,0.194407985955,0.158531907672,0.330853560386,0.427168577457,0.338623978374,0.35366709817,0.475181239403,0.408542253122,0.399482932612,0.0189819121952,0.230962226272
/Entertainment/Reading/E-books,0.380400691567,0.24154826536,0.19930377204,0.253537792173,0.248529429284,0.180880976255,0.237803001272,0.257838030051,0.206980952185,0.236341157157,0.178961303266,0.213760628964,0.287720378441,0.266075949059,0.202626422395,0.252908726436,0.280101847748,0.335126568908,0.231955568968,0.308633304729,0.261971217727,0.326568397596,0.299594755743,0.311593380886,0.285805772376,0.297167506991,0.291860371332,0.299016672343,0.317981737021,0.241086943983,0.299944712472,0.317201697554,0.322538035174,0.221699808248,0.212580761948,0.26873593173,0.367396617515,0.273106132257,0.28578936157,0.380123064227,0.31144272402,0.316914792561,0.0578508897958,0.199508848476
/Entertainment/Reading/Fiction books,0.435110199521,0.19585459966,0.139428808343,0.227022983306,0.229674612139,0.107645448264,0.21804969067,0.226941931918,0.163261853502,0.181612089327,0.183216360306,0.335237831294,0.366868971386,0.364289361398,0.288013610932,0.368669656945,0.414069439933,0.44524002342,0.310497556637,0.372442710948,0.301851695233,0.379279113962,0.296187519425,0.32754321071,0.332812195226,0.310589111716,0.343435347638,0.360846634005,0.34202272362,0.266344303349,0.323741404168,0.346269427733,0.341487778039,0.178883032,0.152603114561,0.34738287556,0.492128289885,0.329718097629,0.304782311663,0.460081743958,0.372908256306,0.386815173799,0.0674742419834,0.219207322518
/Entertainment/Reading/Literature,0.34120280597,0.164213786315,0.101264475687,0.154024520337,0.236159088013,0.0594507142517,0.171515145298,0.152208579962,0.0952530496536,0.14476247202,0.138455741983,0.204357303506,0.25141741271,0.252175806729,0.193078491882,0.234975909158,0.304079451268,0.302747081775,0.257299292008,0.355356781592,0.245528638251,0.421420907755,0.316678781091,0.348126421089,0.384466064845,0.287132118759,0.339199523537,0.340576653756,0.344802543859,0.26607683915,0.324935163356,0.411832691916,0.341658335537,0.196286800193,0.16549082897,0.227048581555,0.34117011132,0.257245633567,0.209036558769,0.323787176189,0.270788244205,0.29580654536,0.0463607803357,0.11454583598
/Entertainment/Reading/Magazines,0.44775317768,0.259468605525,0.21483658676,0.255337489211,0.276927461769,0.202641839886,0.279932613709,0.266645428225,0.222911932065,0.28552036788,0.218858712692,0.245306185323,0.320295682247,0.307130366719,0.237519860745,0.297012461473,0.307328740406,0.362561102805,0.284536197162,0.3433697611,0.303042125545,0.400587363344,0.347029803687,0.353606894266,0.351262677724,0.346699800071,0.371111488417,0.339297342131,0.372112687944,0.302950168074,0.351877426154,0.372493442244,0.371438132023,0.342803944797,0.309908265922,0.315573180596,0.414246676984,0.332112854933,0.324095037684,0.418605692116,0.36517308768,0.366016432055,0.0564365990628,0.191271626952
/Entertainment/Reading/Manga,0.57344302581,0.27570256407,0.32093161193,0.363614711018,0.279508749042,0.268666880206,0.307650204593,0.363685459422,0.324038647461,0.337046097179,0.161036265888,0.351355753847,0.454910140687,0.430095844534,0.360522444265,0.419143975667,0.442425204294,0.488364939524,0.396034957319,0.372022971062,0.341414018774,0.375376052195,0.37699697798,0.400278571059,0.336857344623,0.378462829039,0.337807846705,0.363346877472,0.411691843109,0.370823249447,0.388126142988,0.420632700025,0.407903740681,0.236939074864,0.199309371047,0.337234561463,0.438636802892,0.373119544676,0.421294042179,0.485413905531,0.418058007029,0.426523568374,0.0397683544276,0.207105698064
/Entertainment/Reading/Mystery fiction,0.444867799452,0.201205146647,0.187972078567,0.278841530753,0.205875632482,0.147694146187,0.241262770622,0.252229179985,0.219319106687,0.203440618802,0.196969557333,0.422735446121,0.477971051535,0.464961190525,0.363923718207,0.473495252639,0.51622100459,0.539626956077,0.365653833581,0.385407354095,0.33694865323,0.372989671025,0.300483154403,0.353436453152,0.337967880826,0.347118251251,0.350344659671,0.375964493187,0.361690715361,0.301888872471,0.351857933649,0.328579896133,0.345624332184,0.196087569134,0.160888779063,0.405136463285,0.529697659596,0.365483896437,0.386444604282,0.534042878439,0.448733277464,0.460979579738,0.0763902234361,0.290191872392
/Entertainment/Reading/Newspapers,0.396359458466,0.223401382181,0.199240770216,0.20914623126,0.241725194184,0.168403913729,0.238273785362,0.227474021094,0.181770821035,0.266660284835,0.1657565134,0.175813611787,0.255725555861,0.259693605524,0.215388823979,0.237762412232,0.24912696916,0.26533519597,0.269106550622,0.275065471246,0.255531952901,0.315775051489,0.317546029265,0.293460452128,0.278936590372,0.292968690176,0.288882972429,0.267670262943,0.318956699395,0.26076841408,0.303382378046,0.349740540782,0.309577004902,0.275812501949,0.211184531807,0.269826325598,0.373084897212,0.34155901142,0.277648443709,0.336948451533,0.338339796305,0.337828032091,0.0161473762964,0.133635579787
/Entertainment/Reading/Non-fiction books,0.422850195845,0.210100846002,0.17836293801,0.246683243007,0.286600244702,0.116562917918,0.238670980192,0.245666702787,0.182141864183,0.203974829876,0.213106071182,0.280052610869,0.336930252991,0.311825322004,0.240484768987,0.321117242574,0.357023798853,0.415418855218,0.296555920426,0.347611526267,0.278853449267,0.3828051999,0.298488539746,0.318539722464,0.350838022025,0.313527542133,0.336209808265,0.338163656572,0.330565355175,0.267542460781,0.305788230325,0.365764163037,0.341356972198,0.193168546933,0.187909087062,0.300916241716,0.45072422124,0.30061240708,0.297053268507,0.436941551423,0.328069192069,0.339235872719,0.0893663534934,0.212165378917
/Entertainment/Reading/Romance novels,0.448882184755,0.180135338976,0.181507081511,0.27772704953,0.185696139897,0.152298904708,0.216085152957,0.248443876494,0.208520127833,0.179315253285,0.13613513054,0.497876256887,0.506932824315,0.507927719949,0.429465309188,0.490898336409,0.610765592318,0.541978632722,0.404657346239,0.485427103177,0.390731653816,0.422436150662,0.375729773079,0.402674300133,0.379411122204,0.376915679625,0.392558525142,0.476165521878,0.422021258549,0.340189857484,0.40205243065,0.416244319018,0.401713461581,0.168102694701,0.0755820013928,0.446057984282,0.503972805403,0.40671109973,0.380019884482,0.510017994684,0.462157218874,0.480760116942,0.0626520098985,0.25819469956
/Entertainment/TV,0.476114478779,0.168882911619,0.228178128433,0.256978350664,0.182449312573,0.214429944912,0.224049712921,0.229848517498,0.233114100939,0.295895282699,0.130209370912,0.417535024456,0.47818193782,0.524404545162,0.406408992037,0.475268489839,0.48571934355,0.528887511735,0.417814622236,0.388663680497,0.364812941844,0.343211691797,0.383110580714,0.407958025369,0.314450829388,0.397471000455,0.349429392927,0.384097667428,0.425573912196,0.365731335112,0.409072143397,0.352340831581,0.401117656753,0.231842749182,0.196895310477,0.693071323568,0.719812440471,0.665852224542,0.566443441096,0.73302088096,0.752237016904,0.749745853928,0.0828440509775,0.262249900809
/Entertainment/TV/TV comedies,0.482486760351,0.158160733318,0.214438390919,0.241120225444,0.165331170903,0.191207065906,0.219408420975,0.209112486342,0.214979769897,0.270151101362,0.0973062066021,0.516400928543,0.53808481918,0.633692620052,0.489227777447,0.557778395753,0.593842216683,0.580181480936,0.465511480128,0.423710422448,0.397116655274,0.360360154925,0.390376778377,0.410654452833,0.324552793569,0.386543631444,0.371819087891,0.422258463041,0.434623008987,0.374307572656,0.415835937987,0.36792391864,0.408673138721,0.20677183084,0.146468188325,0.782218760073,0.788363940986,0.743827952924,0.607626234668,0.776501010492,0.853107961787,0.839071329613,0.107588023382,0.236875213134
/Entertainment/TV/TV game shows,0.569689438922,0.272218772505,0.476163342796,0.485492994045,0.234973821876,0.437614328694,0.333371928901,0.464413659858,0.473845512186,0.522143245014,0.121122874109,0.481966076059,0.597791690747,0.620127572803,0.499247886569,0.580945583548,0.565213089949,0.622357415122,0.499544994271,0.398505352364,0.45116242968,0.361639045088,0.451038510209,0.460178430267,0.321731150962,0.442021089328,0.370549192734,0.403716528087,0.477544905672,0.427076644722,0.462468337678,0.400022225217,0.479948691213,0.247152640433,0.230376740916,0.686867590358,0.747245680332,0.692122800514,0.772787580632,0.777346716465,0.789859386162,0.780189901922,0.0810961019565,0.235644731866
/Entertainment/TV/TV reality shows,0.482078654017,0.182258684113,0.266490947584,0.287995124439,0.21160934475,0.230735424044,0.251432727844,0.255345496895,0.255488492847,0.307065197396,0.127709099788,0.493865820529,0.541603603826,0.599389855303,0.473359617615,0.552189896216,0.556119782363,0.584409116791,0.457605997468,0.406456693489,0.386567352541,0.362707133046,0.402224247793,0.426815134801,0.333262547455,0.413168266119,0.358305050857,0.408722685204,0.445945459227,0.399756732765,0.423482390276,0.380230701686,0.437057814422,0.227406821744,0.181707461293,0.740639832375,0.771894586364,0.707120775314,0.709659075272,0.7678145266,0.802915039296,0.795055378919,0.1245514225,0.264412752295
/Entertainment/TV/TV talkshows,0.436621327062,0.135048271448,0.195238076246,0.215772432701,0.144600099916,0.179179793111,0.190695730564,0.190059480674,0.197674917552,0.261411783444,0.099817723412,0.423039711681,0.46584542665,0.530267715624,0.404552134235,0.475079469425,0.489177521805,0.516693217922,0.40474830737,0.357842218046,0.338206239059,0.303158747232,0.345888007139,0.367945987143,0.272764911148,0.357494377643,0.317467608221,0.356045205112,0.388349173419,0.331599973175,0.372482543186,0.317153003437,0.367100588275,0.190173286166,0.162388217587,0.762115011768,0.777295744324,0.714207128767,0.586130294701,0.765783675299,0.810637442435,0.810710800173,0.0922906523512,0.231119113635
